<?xml version="1.0"?>
<opencv_storage>
<cascade>
  <stageType>BOOST</stageType>
  <featureType>HAAR</featureType>
  <height>20</height>
  <width>20</width>
  <stageParams>
    <boostType>GAB</boostType>
    <minHitRate>9.9500000476837158e-01</minHitRate>
    <maxFalseAlarm>5.0000000000000000e-01</maxFalseAlarm>
    <weightTrimRate>9.4999999999999996e-01</weightTrimRate>
    <maxDepth>1</maxDepth>
    <maxWeakCount>100</maxWeakCount></stageParams>
  <featureParams>
    <maxCatCount>0</maxCatCount>
    <featSize>1</featSize>
    <mode>BASIC</mode></featureParams>
  <stageNum>9</stageNum>
  <stages>
    <!-- stage 0 -->
    <_>
      <maxWeakCount>3</maxWeakCount>
      <stageThreshold>-1.2630968093872070e+00</stageThreshold>
      <weakClassifiers>
        <_>
          <internalNodes>
            0 -1 25 7.4921203777194023e-03</internalNodes>
          <leafValues>
            -9.6850395202636719e-01 1.</leafValues></_>
        <_>
          <internalNodes>
            0 -1 12 8.0388449132442474e-03</internalNodes>
          <leafValues>
            -9.3235808610916138e-01 7.8902351856231689e-01</leafValues></_>
        <_>
          <internalNodes>
            0 -1 6 -9.4090905040502548e-03</internalNodes>
          <leafValues>
            6.3776516914367676e-01 -8.8896542787551880e-01</leafValues></_></weakClassifiers></_>
    <!-- stage 1 -->
    <_>
      <maxWeakCount>3</maxWeakCount>
      <stageThreshold>-1.4420057535171509e+00</stageThreshold>
      <weakClassifiers>
        <_>
          <internalNodes>
            0 -1 11 1.1992697604000568e-02</internalNodes>
          <leafValues>
            -9.5494616031646729e-01 8.0000001192092896e-01</leafValues></_>
        <_>
          <internalNodes>
            0 -1 10 8.0420132726430893e-03</internalNodes>
          <leafValues>
            -8.7162989377975464e-01 7.7056282758712769e-01</leafValues></_>
        <_>
          <internalNodes>
            0 -1 0 -1.0373077541589737e-01</internalNodes>
          <leafValues>
            3.8457024097442627e-01 -1.</leafValues></_></weakClassifiers></_>
    <!-- stage 2 -->
    <_>
      <maxWeakCount>3</maxWeakCount>
      <stageThreshold>-1.4586474895477295e+00</stageThreshold>
      <weakClassifiers>
        <_>
          <internalNodes>
            0 -1 14 1.5291494317352772e-02</internalNodes>
          <leafValues>
            -9.5485770702362061e-01 6.3636362552642822e-01</leafValues></_>
        <_>
          <internalNodes>
            0 -1 23 7.3099238798022270e-03</internalNodes>
          <leafValues>
            -8.4991753101348877e-01 7.5169736146926880e-01</leafValues></_>
        <_>
          <internalNodes>
            0 -1 20 -3.4472260624170303e-02</internalNodes>
          <leafValues>
            3.4612774848937988e-01 -9.7417604923248291e-01</leafValues></_></weakClassifiers></_>
    <!-- stage 3 -->
    <_>
      <maxWeakCount>3</maxWeakCount>
      <stageThreshold>-1.5113157033920288e+00</stageThreshold>
      <weakClassifiers>
        <_>
          <internalNodes>
            0 -1 13 1.4803009107708931e-02</internalNodes>
          <leafValues>
            -9.5307916402816772e-01 8.8888889551162720e-01</leafValues></_>
        <_>
          <internalNodes>
            0 -1 15 1.4296096749603748e-02</internalNodes>
          <leafValues>
            -8.2012963294982910e-01 8.8334977626800537e-01</leafValues></_>
        <_>
          <internalNodes>
            0 -1 1 -2.4853665381669998e-02</internalNodes>
          <leafValues>
            -9.8183500766754150e-01 2.6189309358596802e-01</leafValues></_></weakClassifiers></_>
    <!-- stage 4 -->
    <_>
      <maxWeakCount>4</maxWeakCount>
      <stageThreshold>-2.0872941017150879e+00</stageThreshold>
      <weakClassifiers>
        <_>
          <internalNodes>
            0 -1 8 1.2089900672435760e-02</internalNodes>
          <leafValues>
            -9.5107632875442505e-01 6.8421053886413574e-01</leafValues></_>
        <_>
          <internalNodes>
            0 -1 24 -1.4788711443543434e-02</internalNodes>
          <leafValues>
            6.4125257730484009e-01 -8.2961028814315796e-01</leafValues></_>
        <_>
          <internalNodes>
            0 -1 3 7.4451803229749203e-03</internalNodes>
          <leafValues>
            -7.9096794128417969e-01 5.3263807296752930e-01</leafValues></_>
        <_>
          <internalNodes>
            0 -1 26 4.7447914257645607e-03</internalNodes>
          <leafValues>
            -7.7469938993453979e-01 4.8436036705970764e-01</leafValues></_></weakClassifiers></_>
    <!-- stage 5 -->
    <_>
      <maxWeakCount>4</maxWeakCount>
      <stageThreshold>-1.8325021266937256e+00</stageThreshold>
      <weakClassifiers>
        <_>
          <internalNodes>
            0 -1 7 1.4578852802515030e-02</internalNodes>
          <leafValues>
            -9.4926828145980835e-01 8.7500000000000000e-01</leafValues></_>
        <_>
          <internalNodes>
            0 -1 18 -6.6450657323002815e-03</internalNodes>
          <leafValues>
            4.7831374406814575e-01 -8.4359520673751831e-01</leafValues></_>
        <_>
          <internalNodes>
            0 -1 4 -8.1232246011495590e-03</internalNodes>
          <leafValues>
            6.7551487684249878e-01 -6.6246318817138672e-01</leafValues></_>
        <_>
          <internalNodes>
            0 -1 28 -3.8998045492917299e-03</internalNodes>
          <leafValues>
            6.2282449007034302e-01 -6.3177347183227539e-01</leafValues></_></weakClassifiers></_>
    <!-- stage 6 -->
    <_>
      <maxWeakCount>5</maxWeakCount>
      <stageThreshold>-1.6115797758102417e+00</stageThreshold>
      <weakClassifiers>
        <_>
          <internalNodes>
            0 -1 22 -1.3145341537892818e-02</internalNodes>
          <leafValues>
            6.2500000000000000e-01 -9.4536584615707397e-01</leafValues></_>
        <_>
          <internalNodes>
            0 -1 27 7.7426759526133537e-03</internalNodes>
          <leafValues>
            -7.7843606472015381e-01 8.1476527452468872e-01</leafValues></_>
        <_>
          <internalNodes>
            0 -1 9 4.3787416070699692e-03</internalNodes>
          <leafValues>
            -8.1537103652954102e-01 3.5766425728797913e-01</leafValues></_>
        <_>
          <internalNodes>
            0 -1 29 9.0182162821292877e-03</internalNodes>
          <leafValues>
            -7.6411914825439453e-01 3.6274203658103943e-01</leafValues></_>
        <_>
          <internalNodes>
            0 -1 17 -6.0283495113253593e-03</internalNodes>
          <leafValues>
            6.1631768941879272e-01 -6.0818421840667725e-01</leafValues></_></weakClassifiers></_>
    <!-- stage 7 -->
    <_>
      <maxWeakCount>3</maxWeakCount>
      <stageThreshold>-1.5609438419342041e+00</stageThreshold>
      <weakClassifiers>
        <_>
          <internalNodes>
            0 -1 21 8.2456404343247414e-03</internalNodes>
          <leafValues>
            -9.4931775331497192e-01 1.</leafValues></_>
        <_>
          <internalNodes>
            0 -1 2 -7.9222992062568665e-02</internalNodes>
          <leafValues>
            8.3509182929992676e-01 -8.0591261386871338e-01</leafValues></_>
        <_>
          <internalNodes>
            0 -1 19 4.4221807271242142e-02</internalNodes>
          <leafValues>
            -1. 1.9428658485412598e-01</leafValues></_></weakClassifiers></_>
    <!-- stage 8 -->
    <_>
      <maxWeakCount>3</maxWeakCount>
      <stageThreshold>-1.4427752494812012e+00</stageThreshold>
      <weakClassifiers>
        <_>
          <internalNodes>
            0 -1 5 -6.9707678630948067e-03</internalNodes>
          <leafValues>
            1. -9.5312500000000000e-01</leafValues></_>
        <_>
          <internalNodes>
            0 -1 18 7.5470712035894394e-03</internalNodes>
          <leafValues>
            -8.3914548158645630e-01 1.</leafValues></_>
        <_>
          <internalNodes>
            0 -1 16 2.3511905223131180e-02</internalNodes>
          <leafValues>
            -9.4292753934860229e-01 3.4949520230293274e-01</leafValues></_></weakClassifiers></_></stages>
  <features>
    <_>
      <rects>
        <_>
          0 0 18 10 -1.</_>
        <_>
          6 0 6 10 3.</_></rects>
      <tilted>0</tilted></_>
    <_>
      <rects>
        <_>
          1 0 18 10 -1.</_>
        <_>
          1 0 9 5 2.</_>
        <_>
          10 5 9 5 2.</_></rects>
      <tilted>0</tilted></_>
    <_>
      <rects>
        <_>
          2 3 15 2 -1.</_>
        <_>
          7 3 5 2 3.</_></rects>
      <tilted>0</tilted></_>
    <_>
      <rects>
        <_>
          2 6 3 5 -1.</_>
        <_>
          3 6 1 5 3.</_></rects>
      <tilted>0</tilted></_>
    <_>
      <rects>
        <_>
          4 4 4 2 -1.</_>
        <_>
          4 4 2 1 2.</_>
        <_>
          6 5 2 1 2.</_></rects>
      <tilted>0</tilted></_>
    <_>
      <rects>
        <_>
          6 9 1 2 -1.</_>
        <_>
          6 10 1 1 2.</_></rects>
      <tilted>0</tilted></_>
    <_>
      <rects>
        <_>
          6 10 9 3 -1.</_>
        <_>
          6 11 9 1 3.</_></rects>
      <tilted>0</tilted></_>
    <_>
      <rects>
        <_>
          7 8 1 3 -1.</_>
        <_>
          7 9 1 1 3.</_></rects>
      <tilted>0</tilted></_>
    <_>
      <rects>
        <_>
          7 9 2 2 -1.</_>
        <_>
          7 9 1 1 2.</_>
        <_>
          8 10 1 1 2.</_></rects>
      <tilted>0</tilted></_>
    <_>
      <rects>
        <_>
          7 17 6 3 -1.</_>
        <_>
          9 17 2 3 3.</_></rects>
      <tilted>0</tilted></_>
    <_>
      <rects>
        <_>
          8 5 1 3 -1.</_>
        <_>
          8 6 1 1 3.</_></rects>
      <tilted>0</tilted></_>
    <_>
      <rects>
        <_>
          8 6 1 3 -1.</_>
        <_>
          8 7 1 1 3.</_></rects>
      <tilted>0</tilted></_>
    <_>
      <rects>
        <_>
          8 7 1 3 -1.</_>
        <_>
          8 8 1 1 3.</_></rects>
      <tilted>0</tilted></_>
    <_>
      <rects>
        <_>
          8 9 3 1 -1.</_>
        <_>
          9 9 1 1 3.</_></rects>
      <tilted>0</tilted></_>
    <_>
      <rects>
        <_>
          8 9 1 3 -1.</_>
        <_>
          8 10 1 1 3.</_></rects>
      <tilted>0</tilted></_>
    <_>
      <rects>
        <_>
          9 5 1 3 -1.</_>
        <_>
          9 6 1 1 3.</_></rects>
      <tilted>0</tilted></_>
    <_>
      <rects>
        <_>
          9 5 11 12 -1.</_>
        <_>
          9 11 11 6 2.</_></rects>
      <tilted>0</tilted></_>
    <_>
      <rects>
        <_>
          9 6 3 2 -1.</_>
        <_>
          9 7 3 1 2.</_></rects>
      <tilted>0</tilted></_>
    <_>
      <rects>
        <_>
          9 8 2 2 -1.</_>
        <_>
          9 8 1 1 2.</_>
        <_>
          10 9 1 1 2.</_></rects>
      <tilted>0</tilted></_>
    <_>
      <rects>
        <_>
          10 0 10 14 -1.</_>
        <_>
          15 0 5 14 2.</_></rects>
      <tilted>0</tilted></_>
    <_>
      <rects>
        <_>
          11 0 9 8 -1.</_>
        <_>
          11 4 9 4 2.</_></rects>
      <tilted>0</tilted></_>
    <_>
      <rects>
        <_>
          11 6 1 2 -1.</_>
        <_>
          11 7 1 1 2.</_></rects>
      <tilted>0</tilted></_>
    <_>
      <rects>
        <_>
          11 6 2 2 -1.</_>
        <_>
          11 6 1 1 2.</_>
        <_>
          12 7 1 1 2.</_></rects>
      <tilted>0</tilted></_>
    <_>
      <rects>
        <_>
          11 9 1 2 -1.</_>
        <_>
          11 10 1 1 2.</_></rects>
      <tilted>0</tilted></_>
    <_>
      <rects>
        <_>
          11 10 1 3 -1.</_>
        <_>
          11 11 1 1 3.</_></rects>
      <tilted>0</tilted></_>
    <_>
      <rects>
        <_>
          11 11 1 2 -1.</_>
        <_>
          11 12 1 1 2.</_></rects>
      <tilted>0</tilted></_>
    <_>
      <rects>
        <_>
          11 15 6 4 -1.</_>
        <_>
          11 15 3 2 2.</_>
        <_>
          14 17 3 2 2.</_></rects>
      <tilted>0</tilted></_>
    <_>
      <rects>
        <_>
          12 8 1 2 -1.</_>
        <_>
          12 9 1 1 2.</_></rects>
      <tilted>0</tilted></_>
    <_>
      <rects>
        <_>
          12 9 3 2 -1.</_>
        <_>
          13 9 1 2 3.</_></rects>
      <tilted>0</tilted></_>
    <_>
      <rects>
        <_>
          14 12 6 8 -1.</_>
        <_>
          14 16 6 4 2.</_></rects>
      <tilted>0</tilted></_></features></cascade>
</opencv_storage>
